{
  "sizes": [7, 7, 5, 4, 3],
  "layers": [
    {
      "sleep": {},
      "social": {},
      "meals": {},
      "exercise": {},
      "work": {},
      "relax": {},
      "sun": {}
    },
    {
      "0": {
        "bias": 0.15182514488697052,
        "weights": {
          "sleep": -0.030343711376190186,
          "social": 1.2898410558700562,
          "meals": -1.3421711921691895,
          "exercise": -0.2976728677749634,
          "work": -1.0315852165222168,
          "relax": 4.431291103363037,
          "sun": -4.228064060211182
        }
      },
      "1": {
        "bias": -2.9981400966644287,
        "weights": {
          "sleep": 0.6639654040336609,
          "social": -1.834888219833374,
          "meals": -8.526453018188477,
          "exercise": 3.126769542694092,
          "work": 0.12360551208257675,
          "relax": 8.850343704223633,
          "sun": 3.433319568634033
        }
      },
      "2": {
        "bias": -1.941192626953125,
        "weights": {
          "sleep": 1.5985244512557983,
          "social": -0.11255678534507751,
          "meals": -3.028818130493164,
          "exercise": -1.14641535282135,
          "work": 6.171057224273682,
          "relax": 4.219348907470703,
          "sun": 2.861258029937744
        }
      },
      "3": {
        "bias": -2.50974178314209,
        "weights": {
          "sleep": -1.9582024812698364,
          "social": -7.472172260284424,
          "meals": 4.238137722015381,
          "exercise": -0.03121231123805046,
          "work": 4.32661771774292,
          "relax": -2.719203233718872,
          "sun": 2.1327335834503174
        }
      },
      "4": {
        "bias": -1.7504533529281616,
        "weights": {
          "sleep": 0.7337324619293213,
          "social": -9.554426193237305,
          "meals": -0.4078547954559326,
          "exercise": 4.350841522216797,
          "work": -2.434922456741333,
          "relax": 3.3803768157958984,
          "sun": 6.2367143630981445
        }
      },
      "5": {
        "bias": -3.9256255626678467,
        "weights": {
          "sleep": 2.7735373973846436,
          "social": -1.1353942155838013,
          "meals": -4.170543670654297,
          "exercise": 1.4098228216171265,
          "work": 4.00089168548584,
          "relax": 5.678908824920654,
          "sun": -2.229616165161133
        }
      },
      "6": {
        "bias": -2.862866163253784,
        "weights": {
          "sleep": 0.02439085952937603,
          "social": -1.3143614530563354,
          "meals": 0.36352798342704773,
          "exercise": 0.3468947112560272,
          "work": 7.666732311248779,
          "relax": 0.8755733370780945,
          "sun": -3.3481273651123047
        }
      }
    },
    {
      "0": {
        "bias": -0.8080178499221802,
        "weights": {
          "0": -0.5536239147186279,
          "1": -2.5734784603118896,
          "2": 2.279500722885132,
          "3": -0.8274598121643066,
          "4": 1.732186198234558,
          "5": 4.418187618255615,
          "6": -3.1875674724578857
        }
      },
      "1": {
        "bias": 0.6924912929534912,
        "weights": {
          "0": -2.088139295578003,
          "1": -4.421248912811279,
          "2": 0.9038840532302856,
          "3": -2.7486603260040283,
          "4": 3.1200666427612305,
          "5": 3.32916522026062,
          "6": 0.5021792650222778
        }
      },
      "2": {
        "bias": -4.265900611877441,
        "weights": {
          "0": -3.7444143295288086,
          "1": 1.7099119424819946,
          "2": 2.7048821449279785,
          "3": -2.9431750774383545,
          "4": 3.7130346298217773,
          "5": 2.9740042686462402,
          "6": 5.425440311431885
        }
      },
      "3": {
        "bias": 1.640309453010559,
        "weights": {
          "0": -0.5596455335617065,
          "1": -4.350847244262695,
          "2": 1.7476481199264526,
          "3": -3.4465274810791016,
          "4": 4.368236064910889,
          "5": 0.660073459148407,
          "6": -0.21806734800338745
        }
      },
      "4": {
        "bias": -0.6308871507644653,
        "weights": {
          "0": -0.99491286277771,
          "1": -2.5077807903289795,
          "2": -3.029102325439453,
          "3": -1.2489476203918457,
          "4": 4.703572750091553,
          "5": 2.216632843017578,
          "6": 0.010229438543319702
        }
      }
    },
    {
      "0": {
        "bias": 0.6257262825965881,
        "weights": {
          "0": 1.4876130819320679,
          "1": -0.14196471869945526,
          "2": -6.758681774139404,
          "3": -5.5861992835998535,
          "4": 2.3812334537506104
        }
      },
      "1": {
        "bias": 0.5090355277061462,
        "weights": {
          "0": -0.562531590461731,
          "1": -2.4546308517456055,
          "2": 1.8871179819107056,
          "3": -5.6762871742248535,
          "4": -3.292025327682495
        }
      },
      "2": {
        "bias": 3.563223123550415,
        "weights": {
          "0": -2.740295171737671,
          "1": -5.165335178375244,
          "2": -1.2490659952163696,
          "3": -0.6612250804901123,
          "4": -2.9429028034210205
        }
      },
      "3": {
        "bias": 2.005122661590576,
        "weights": {
          "0": -2.345632791519165,
          "1": 0.18597322702407837,
          "2": -1.7719591856002808,
          "3": 0.11100257933139801,
          "4": 3.0178382396698
        }
      }
    },
    {
      "pleasant": {
        "bias": 2.283951997756958,
        "weights": {
          "0": -2.6739864349365234,
          "1": 3.720426321029663,
          "2": -1.8916395902633667,
          "3": -4.29372501373291
        }
      },
      "energy": {
        "bias": 2.41965389251709,
        "weights": {
          "0": -4.2058234214782715,
          "1": -2.617802381515503,
          "2": -1.9928570985794067,
          "3": -2.3861443996429443
        }
      },
      "tension": {
        "bias": 1.7475603818893433,
        "weights": {
          "0": 5.184898853302002,
          "1": -2.3694822788238525,
          "2": -5.710093021392822,
          "3": -1.7772115468978882
        }
      }
    }
  ],
  "outputLookup": true,
  "inputLookup": true,
  "activation": "sigmoid",
  "trainOpts": {
    "iterations": 20000,
    "errorThresh": 0.005,
    "log": false,
    "logPeriod": 10,
    "learningRate": 0.3,
    "momentum": 0.1,
    "callbackPeriod": 10,
    "beta1": 0.9,
    "beta2": 0.999,
    "epsilon": 1e-8
  }
}
