{
  "sizes": [7, 7, 5, 4, 3],
  "layers": [
    {
      "sleep": {},
      "social": {},
      "meals": {},
      "exercise": {},
      "work": {},
      "relax": {},
      "sun": {}
    },
    {
      "0": {
        "bias": 1.1480573415756226,
        "weights": {
          "sleep": 0.00500162597745657,
          "social": 1.4931877851486206,
          "meals": -0.8923125863075256,
          "exercise": 0.07104621082544327,
          "work": -0.892758309841156,
          "relax": 4.669617176055908,
          "sun": -3.956411838531494
        }
      },
      "1": {
        "bias": -3.063157558441162,
        "weights": {
          "sleep": 0.5229272842407227,
          "social": -1.9296706914901733,
          "meals": -8.59005069732666,
          "exercise": 3.1046838760375977,
          "work": 0.09310156852006912,
          "relax": 8.859919548034668,
          "sun": 3.433469295501709
        }
      },
      "2": {
        "bias": -2.3274965286254883,
        "weights": {
          "sleep": 1.3647996187210083,
          "social": -0.37068721652030945,
          "meals": -3.4951298236846924,
          "exercise": -1.2691000699996948,
          "work": 6.003223419189453,
          "relax": 3.9885740280151367,
          "sun": 2.6036112308502197
        }
      },
      "3": {
        "bias": -2.008775234222412,
        "weights": {
          "sleep": -1.8824012279510498,
          "social": -7.298291206359863,
          "meals": 4.499650478363037,
          "exercise": 0.17447803914546967,
          "work": 4.492508411407471,
          "relax": -2.55656361579895,
          "sun": 2.3419666290283203
        }
      },
      "4": {
        "bias": -1.8818480968475342,
        "weights": {
          "sleep": 0.8811166882514954,
          "social": -9.554316520690918,
          "meals": -0.4103557765483856,
          "exercise": 4.279979705810547,
          "work": -2.3968498706817627,
          "relax": 3.3253731727600098,
          "sun": 6.201817512512207
        }
      },
      "5": {
        "bias": -3.9350125789642334,
        "weights": {
          "sleep": 2.883975028991699,
          "social": -1.0849225521087646,
          "meals": -4.1836934089660645,
          "exercise": 1.432211995124817,
          "work": 3.9841392040252686,
          "relax": 5.6689066886901855,
          "sun": -2.233546495437622
        }
      },
      "6": {
        "bias": -3.014162302017212,
        "weights": {
          "sleep": 0.02531500905752182,
          "social": -1.2724645137786865,
          "meals": 0.4247107207775116,
          "exercise": 0.16132399439811707,
          "work": 7.691954135894775,
          "relax": 0.8790776133537292,
          "sun": -3.3429465293884277
        }
      }
    },
    {
      "0": {
        "bias": -1.089320421218872,
        "weights": {
          "0": -0.6499840021133423,
          "1": -2.5420496463775635,
          "2": 1.8563283681869507,
          "3": -0.9891495108604431,
          "4": 1.8024879693984985,
          "5": 4.429391384124756,
          "6": -3.3477227687835693
        }
      },
      "1": {
        "bias": -0.10770785063505173,
        "weights": {
          "0": -2.5782880783081055,
          "1": -4.617010593414307,
          "2": 0.8512668609619141,
          "3": -2.966586112976074,
          "4": 2.79913330078125,
          "5": 3.345327377319336,
          "6": 0.38073956966400146
        }
      },
      "2": {
        "bias": -4.8007988929748535,
        "weights": {
          "0": -4.130626201629639,
          "1": 1.4530466794967651,
          "2": 2.537426710128784,
          "3": -3.0718655586242676,
          "4": 3.2215354442596436,
          "5": 2.929919481277466,
          "6": 5.316772937774658
        }
      },
      "3": {
        "bias": 1.616302728652954,
        "weights": {
          "0": -0.5852397680282593,
          "1": -4.555797576904297,
          "2": 1.7975263595581055,
          "3": -3.4799766540527344,
          "4": 3.9975638389587402,
          "5": 0.640967845916748,
          "6": -0.24565725028514862
        }
      },
      "4": {
        "bias": -0.6744192242622375,
        "weights": {
          "0": -1.007475733757019,
          "1": -2.336606502532959,
          "2": -3.0305826663970947,
          "3": -1.1121742725372314,
          "4": 5.187532901763916,
          "5": 2.247978448867798,
          "6": 0.06564220041036606
        }
      }
    },
    {
      "0": {
        "bias": 1.2588473558425903,
        "weights": {
          "0": 1.7074451446533203,
          "1": 0.02409147098660469,
          "2": -6.677474498748779,
          "3": -4.877645015716553,
          "4": 3.321213483810425
        }
      },
      "1": {
        "bias": 0.5201084613800049,
        "weights": {
          "0": -0.5575382113456726,
          "1": -2.4557135105133057,
          "2": 1.8989064693450928,
          "3": -5.664942264556885,
          "4": -3.2912821769714355
        }
      },
      "2": {
        "bias": 4.448614597320557,
        "weights": {
          "0": -2.5704004764556885,
          "1": -5.038042068481445,
          "2": -1.0859907865524292,
          "3": 0.1827072650194168,
          "4": -2.6393930912017822
        }
      },
      "3": {
        "bias": 1.5450077056884766,
        "weights": {
          "0": -2.482846975326538,
          "1": 0.14072555303573608,
          "2": -1.79378342628479,
          "3": -0.26463231444358826,
          "4": 3.0365283489227295
        }
      }
    },
    {
      "pleasant": {
        "bias": 2.2446506023406982,
        "weights": {
          "0": -2.58796763420105,
          "1": 3.725130796432495,
          "2": -1.3981049060821533,
          "3": -4.0203046798706055
        }
      },
      "energy": {
        "bias": 2.525834560394287,
        "weights": {
          "0": -4.448191165924072,
          "1": -2.6105196475982666,
          "2": -1.7189730405807495,
          "3": -3.0622189044952393
        }
      },
      "tension": {
        "bias": 3.0067646503448486,
        "weights": {
          "0": 5.226655006408691,
          "1": -2.375420331954956,
          "2": -6.273968696594238,
          "3": -0.561988890171051
        }
      }
    }
  ],
  "outputLookup": true,
  "inputLookup": true,
  "activation": "sigmoid",
  "trainOpts": {
    "iterations": 20000,
    "errorThresh": 0.005,
    "log": false,
    "logPeriod": 10,
    "learningRate": 0.3,
    "momentum": 0.1,
    "callbackPeriod": 10,
    "beta1": 0.9,
    "beta2": 0.999,
    "epsilon": 1e-8
  }
}
