{
  "sizes": [7, 7, 5, 4, 3],
  "layers": [
    {
      "sleep": {},
      "social": {},
      "meals": {},
      "exercise": {},
      "work": {},
      "relax": {},
      "sun": {}
    },
    {
      "0": {
        "bias": 0.8299886584281921,
        "weights": {
          "sleep": -0.02707335352897644,
          "social": 1.3964320421218872,
          "meals": -1.182285189628601,
          "exercise": 0.07104621082544327,
          "work": -1.0145740509033203,
          "relax": 4.605482578277588,
          "sun": -4.002595901489258
        }
      },
      "1": {
        "bias": -2.903099298477173,
        "weights": {
          "sleep": 0.7096741199493408,
          "social": -1.7952700853347778,
          "meals": -8.467026710510254,
          "exercise": 3.1046838760375977,
          "work": 0.18776215612888336,
          "relax": 8.954564094543457,
          "sun": 3.5758488178253174
        }
      },
      "2": {
        "bias": -1.7677991390228271,
        "weights": {
          "sleep": 1.6230391263961792,
          "social": -0.11528117209672928,
          "meals": -3.0329041481018066,
          "exercise": -1.2691000699996948,
          "work": 6.1937031745910645,
          "relax": 4.194591522216797,
          "sun": 2.8689990043640137
        }
      },
      "3": {
        "bias": -2.148634910583496,
        "weights": {
          "sleep": -1.8946775197982788,
          "social": -7.368668556213379,
          "meals": 4.393396854400635,
          "exercise": 0.17447803914546967,
          "work": 4.4151811599731445,
          "relax": -2.5801522731781006,
          "sun": 2.354379892349243
        }
      },
      "4": {
        "bias": -2.0905888080596924,
        "weights": {
          "sleep": 0.6166757941246033,
          "social": -9.70014476776123,
          "meals": -0.626426637172699,
          "exercise": 4.279979705810547,
          "work": -2.530398368835449,
          "relax": 3.182835102081299,
          "sun": 5.978578567504883
        }
      },
      "5": {
        "bias": -4.01886510848999,
        "weights": {
          "sleep": 2.74564528465271,
          "social": -1.1638948917388916,
          "meals": -4.213298797607422,
          "exercise": 1.432211995124817,
          "work": 3.9589505195617676,
          "relax": 5.60374641418457,
          "sun": -2.3319127559661865
        }
      },
      "6": {
        "bias": -3.1282436847686768,
        "weights": {
          "sleep": -0.007491499651223421,
          "social": -1.337795376777649,
          "meals": 0.3283787965774536,
          "exercise": 0.16132399439811707,
          "work": 7.640953540802002,
          "relax": 0.855042040348053,
          "sun": -3.3746800422668457
        }
      }
    },
    {
      "0": {
        "bias": -0.4737255573272705,
        "weights": {
          "0": -0.23724952340126038,
          "1": -2.5362322330474854,
          "2": 2.2184510231018066,
          "3": -0.807744026184082,
          "4": 1.905097484588623,
          "5": 4.432577610015869,
          "6": -3.1496431827545166
        }
      },
      "1": {
        "bias": 0.02339794859290123,
        "weights": {
          "0": -2.3948707580566406,
          "1": -4.6511945724487305,
          "2": 0.6940420866012573,
          "3": -2.8570637702941895,
          "4": 2.8074631690979004,
          "5": 3.3014657497406006,
          "6": 0.5136075615882874
        }
      },
      "2": {
        "bias": -4.69746732711792,
        "weights": {
          "0": -4.058837413787842,
          "1": 1.4544621706008911,
          "2": 2.6352286338806152,
          "3": -2.998940944671631,
          "4": 3.27433705329895,
          "5": 2.935518264770508,
          "6": 5.386349678039551
        }
      },
      "3": {
        "bias": 1.6016138792037964,
        "weights": {
          "0": -0.5940632820129395,
          "1": -4.560665130615234,
          "2": 1.7781306505203247,
          "3": -3.452763557434082,
          "4": 4.030727863311768,
          "5": 0.6363739371299744,
          "6": -0.23286303877830505
        }
      },
      "4": {
        "bias": -0.8425622582435608,
        "weights": {
          "0": -1.0873757600784302,
          "1": -2.3512234687805176,
          "2": -3.1932661533355713,
          "3": -1.2730252742767334,
          "4": 5.031830310821533,
          "5": 2.2360243797302246,
          "6": 0.015192034654319286
        }
      }
    },
    {
      "0": {
        "bias": 1.2755825519561768,
        "weights": {
          "0": 1.718651533126831,
          "1": 0.023858221247792244,
          "2": -6.686526298522949,
          "3": -4.869558811187744,
          "4": 3.274934768676758
        }
      },
      "1": {
        "bias": 0.5276407599449158,
        "weights": {
          "0": -0.5505706071853638,
          "1": -2.452481508255005,
          "2": 1.899194359779358,
          "3": -5.657044887542725,
          "4": -3.291173219680786
        }
      },
      "2": {
        "bias": 4.2401862144470215,
        "weights": {
          "0": -2.4448397159576416,
          "1": -4.96275520324707,
          "2": -1.0814498662948608,
          "3": 0.010389224626123905,
          "4": -2.697483539581299
        }
      },
      "3": {
        "bias": 0.9631548523902893,
        "weights": {
          "0": -2.726071357727051,
          "1": -0.029859822243452072,
          "2": -1.8339800834655762,
          "3": -0.8496116399765015,
          "4": 2.939605712890625
        }
      }
    },
    {
      "pleasant": {
        "bias": 3.160928249359131,
        "weights": {
          "0": -2.4852256774902344,
          "1": 3.727781057357788,
          "2": -0.6543052196502686,
          "3": -3.6722099781036377
        }
      },
      "energy": {
        "bias": 2.1615517139434814,
        "weights": {
          "0": -4.4830756187438965,
          "1": -2.6113932132720947,
          "2": -1.8300951719284058,
          "3": -3.0247719287872314
        }
      },
      "tension": {
        "bias": 3.218196392059326,
        "weights": {
          "0": 5.248950481414795,
          "1": -2.3738455772399902,
          "2": -5.9094367027282715,
          "3": -0.38095822930336
        }
      }
    }
  ],
  "outputLookup": true,
  "inputLookup": true,
  "activation": "sigmoid",
  "trainOpts": {
    "iterations": 20000,
    "errorThresh": 0.005,
    "log": false,
    "logPeriod": 10,
    "learningRate": 0.3,
    "momentum": 0.1,
    "callbackPeriod": 10,
    "beta1": 0.9,
    "beta2": 0.999,
    "epsilon": 1e-8
  }
}
