{
  "sizes": [7, 7, 5, 4, 3],
  "layers": [
    {
      "sleep": {},
      "social": {},
      "meals": {},
      "exercise": {},
      "work": {},
      "relax": {},
      "sun": {}
    },
    {
      "0": {
        "bias": 1.0682576894760132,
        "weights": {
          "sleep": -0.00015450650244019926,
          "social": 1.48700749874115,
          "meals": -0.8880254626274109,
          "exercise": 0.07104621082544327,
          "work": -0.8968831300735474,
          "relax": 4.681513786315918,
          "sun": -3.9615678787231445
        }
      },
      "1": {
        "bias": -3.1264359951019287,
        "weights": {
          "sleep": 0.5271168351173401,
          "social": -1.9254792928695679,
          "meals": -8.584124565124512,
          "exercise": 3.1046838760375977,
          "work": 0.09645311534404755,
          "relax": 8.863628387451172,
          "sun": 3.437659502029419
        }
      },
      "2": {
        "bias": -2.318319797515869,
        "weights": {
          "sleep": 1.3357045650482178,
          "social": -0.41334983706474304,
          "meals": -3.523930072784424,
          "exercise": -1.2691000699996948,
          "work": 5.979946613311768,
          "relax": 3.992835521697998,
          "sun": 2.574517011642456
        }
      },
      "3": {
        "bias": -2.0909836292266846,
        "weights": {
          "sleep": -1.8795549869537354,
          "social": -7.290991306304932,
          "meals": 4.508847236633301,
          "exercise": 0.17447803914546967,
          "work": 4.494785308837891,
          "relax": -2.551600933074951,
          "sun": 2.344813346862793
        }
      },
      "4": {
        "bias": -1.798158049583435,
        "weights": {
          "sleep": 0.8763788938522339,
          "social": -9.55878734588623,
          "meals": -0.41845938563346863,
          "exercise": 4.279979705810547,
          "work": -2.4006400108337402,
          "relax": 3.3190391063690186,
          "sun": 6.197080135345459
        }
      },
      "5": {
        "bias": -3.9234228134155273,
        "weights": {
          "sleep": 2.8706612586975098,
          "social": -1.096498727798462,
          "meals": -4.206519603729248,
          "exercise": 1.432211995124817,
          "work": 3.9734883308410645,
          "relax": 5.650049686431885,
          "sun": -2.2468602657318115
        }
      },
      "6": {
        "bias": -3.0352470874786377,
        "weights": {
          "sleep": 0.038043729960918427,
          "social": -1.2608535289764404,
          "meals": 0.4461659789085388,
          "exercise": 0.16132399439811707,
          "work": 7.702136516571045,
          "relax": 0.8960739374160767,
          "sun": -3.3302178382873535
        }
      }
    },
    {
      "0": {
        "bias": -0.8115156888961792,
        "weights": {
          "0": -0.43188706040382385,
          "1": -2.5294456481933594,
          "2": 1.9027098417282104,
          "3": -0.9538349509239197,
          "4": 1.8358458280563354,
          "5": 4.4344024658203125,
          "6": -3.3333513736724854
        }
      },
      "1": {
        "bias": -0.005212543997913599,
        "weights": {
          "0": -2.508340835571289,
          "1": -4.611958980560303,
          "2": 0.8254045248031616,
          "3": -2.9633371829986572,
          "4": 2.8137001991271973,
          "5": 3.340847969055176,
          "6": 0.368340402841568
        }
      },
      "2": {
        "bias": -4.779073238372803,
        "weights": {
          "0": -4.116029739379883,
          "1": 1.453477144241333,
          "2": 2.56191086769104,
          "3": -3.0659725666046143,
          "4": 3.223374605178833,
          "5": 2.9323506355285645,
          "6": 5.324495792388916
        }
      },
      "3": {
        "bias": 1.666526436805725,
        "weights": {
          "0": -0.503231406211853,
          "1": -4.547041893005371,
          "2": 1.8073464632034302,
          "3": -3.462427854537964,
          "4": 4.02370548248291,
          "5": 0.646904468536377,
          "6": -0.23585669696331024
        }
      },
      "4": {
        "bias": -0.7498486638069153,
        "weights": {
          "0": -1.103139877319336,
          "1": -2.345482110977173,
          "2": -3.0281472206115723,
          "3": -1.1296595335006714,
          "4": 5.16747522354126,
          "5": 2.2442426681518555,
          "6": 0.05997263267636299
        }
      }
    },
    {
      "0": {
        "bias": 1.2344717979431152,
        "weights": {
          "0": 1.7041101455688477,
          "1": 0.04218178614974022,
          "2": -6.679937839508057,
          "3": -4.900744915008545,
          "4": 3.3159947395324707
        }
      },
      "1": {
        "bias": 0.5178011059761047,
        "weights": {
          "0": -0.5576254725456238,
          "1": -2.45510196685791,
          "2": 1.898943305015564,
          "3": -5.666448593139648,
          "4": -3.2933130264282227
        }
      },
      "2": {
        "bias": 4.262122631072998,
        "weights": {
          "0": -2.6332478523254395,
          "1": -5.069008827209473,
          "2": -1.0858101844787598,
          "3": 0.019755378365516663,
          "4": -2.6766774654388428
        }
      },
      "3": {
        "bias": 1.1279562711715698,
        "weights": {
          "0": -2.5995283126831055,
          "1": 0.09565112739801407,
          "2": -1.798540472984314,
          "3": -0.6356081366539001,
          "4": 2.9689977169036865
        }
      }
    },
    {
      "pleasant": {
        "bias": 2.5641510486602783,
        "weights": {
          "0": -2.5583925247192383,
          "1": 3.7277133464813232,
          "2": -0.971386730670929,
          "3": -3.787735939025879
        }
      },
      "energy": {
        "bias": 2.8847122192382812,
        "weights": {
          "0": -4.370351791381836,
          "1": -2.6082565784454346,
          "2": -1.375233769416809,
          "3": -2.8341569900512695
        }
      },
      "tension": {
        "bias": 3.3699846267700195,
        "weights": {
          "0": 5.300901412963867,
          "1": -2.3727686405181885,
          "2": -5.924036979675293,
          "3": -0.28140005469322205
        }
      }
    }
  ],
  "outputLookup": true,
  "inputLookup": true,
  "activation": "sigmoid",
  "trainOpts": {
    "iterations": 20000,
    "errorThresh": 0.005,
    "log": false,
    "logPeriod": 10,
    "learningRate": 0.3,
    "momentum": 0.1,
    "callbackPeriod": 10,
    "beta1": 0.9,
    "beta2": 0.999,
    "epsilon": 1e-8
  }
}
