{
  "sizes": [7, 7, 5, 4, 3],
  "layers": [
    {
      "sleep": {},
      "social": {},
      "meals": {},
      "exercise": {},
      "work": {},
      "relax": {},
      "sun": {}
    },
    {
      "0": {
        "bias": 1.0887744426727295,
        "weights": {
          "sleep": 0.022528039291501045,
          "social": 1.5096899271011353,
          "meals": -0.8710134625434875,
          "exercise": 0.07104621082544327,
          "work": -0.8832736611366272,
          "relax": 4.704195976257324,
          "sun": -3.94455623626709
        }
      },
      "1": {
        "bias": -3.0309624671936035,
        "weights": {
          "sleep": 0.6329746246337891,
          "social": -1.8196214437484741,
          "meals": -8.504730224609375,
          "exercise": 3.1046838760375977,
          "work": 0.1599677950143814,
          "relax": 8.969487190246582,
          "sun": 3.5170528888702393
        }
      },
      "2": {
        "bias": -2.3205230236053467,
        "weights": {
          "sleep": 1.3332703113555908,
          "social": -0.4157842993736267,
          "meals": -3.5257556438446045,
          "exercise": -1.2691000699996948,
          "work": 5.978486061096191,
          "relax": 3.990401029586792,
          "sun": 2.5726914405822754
        }
      },
      "3": {
        "bias": -2.088698387145996,
        "weights": {
          "sleep": -1.8770294189453125,
          "social": -7.28846549987793,
          "meals": 4.510741233825684,
          "exercise": 0.17447803914546967,
          "work": 4.49630069732666,
          "relax": -2.5490756034851074,
          "sun": 2.346707344055176
        }
      },
      "4": {
        "bias": -1.8105332851409912,
        "weights": {
          "sleep": 0.8627026081085205,
          "social": -9.572463035583496,
          "meals": -0.4287165403366089,
          "exercise": 4.279979705810547,
          "work": -2.4088456630706787,
          "relax": 3.305363178253174,
          "sun": 6.186822414398193
        }
      },
      "5": {
        "bias": -3.945357084274292,
        "weights": {
          "sleep": 2.8460307121276855,
          "social": -1.1211291551589966,
          "meals": -4.224992275238037,
          "exercise": 1.432211995124817,
          "work": 3.958710193634033,
          "relax": 5.6254191398620605,
          "sun": -2.2653329372406006
        }
      },
      "6": {
        "bias": -3.15218186378479,
        "weights": {
          "sleep": -0.09068918973207474,
          "social": -1.3895864486694336,
          "meals": 0.34961628913879395,
          "exercise": 0.16132399439811707,
          "work": 7.62489652633667,
          "relax": 0.7673410177230835,
          "sun": -3.4267678260803223
        }
      }
    },
    {
      "0": {
        "bias": -0.7626680731773376,
        "weights": {
          "0": -0.3805008828639984,
          "1": -2.4915175437927246,
          "2": 1.9561070203781128,
          "3": -0.9536980390548706,
          "4": 1.8365546464920044,
          "5": 4.473294258117676,
          "6": -3.322197198867798
        }
      },
      "1": {
        "bias": 0.024050889536738396,
        "weights": {
          "0": -2.477679491043091,
          "1": -4.589369773864746,
          "2": 0.8572672009468079,
          "3": -2.9632554054260254,
          "4": 2.8141236305236816,
          "5": 3.3640618324279785,
          "6": 0.3750358521938324
        }
      },
      "2": {
        "bias": -4.896534442901611,
        "weights": {
          "0": -4.240290641784668,
          "1": 1.361090064048767,
          "2": 2.4328155517578125,
          "3": -3.0663037300109863,
          "4": 3.2216665744781494,
          "5": 2.8384878635406494,
          "6": 5.298160552978516
        }
      },
      "3": {
        "bias": 1.4703161716461182,
        "weights": {
          "0": -0.7108281254768372,
          "1": -4.701292514801025,
          "2": 1.591666579246521,
          "3": -3.4629812240600586,
          "4": 4.02085018157959,
          "5": 0.49005430936813354,
          "6": -0.2799582779407501
        }
      },
      "4": {
        "bias": -0.7413656115531921,
        "weights": {
          "0": -1.0941648483276367,
          "1": -2.338775396347046,
          "2": -3.018824815750122,
          "3": -1.1296355724334717,
          "4": 5.167598247528076,
          "5": 2.251012086868286,
          "6": 0.06184535101056099
        }
      }
    },
    {
      "0": {
        "bias": 1.4248502254486084,
        "weights": {
          "0": 1.8780922889709473,
          "1": 0.061721667647361755,
          "2": -6.659487724304199,
          "3": -4.81532096862793,
          "4": 3.3177502155303955
        }
      },
      "1": {
        "bias": 0.49562734365463257,
        "weights": {
          "0": -0.5780794620513916,
          "1": -2.4571409225463867,
          "2": 1.8969826698303223,
          "3": -5.674817085266113,
          "4": -3.2935051918029785
        }
      },
      "2": {
        "bias": 4.209322929382324,
        "weights": {
          "0": -2.6809463500976562,
          "1": -5.074688911437988,
          "2": -1.0919700860977173,
          "3": -0.005491381045430899,
          "4": -2.677175998687744
        }
      },
      "3": {
        "bias": 1.1900556087493896,
        "weights": {
          "0": -2.542377233505249,
          "1": 0.10168133676052094,
          "2": -1.7924927473068237,
          "3": -0.6099817752838135,
          "4": 2.9695534706115723
        }
      }
    },
    {
      "pleasant": {
        "bias": 2.5116286277770996,
        "weights": {
          "0": -2.5985636711120605,
          "1": 3.720585346221924,
          "2": -1.019097924232483,
          "3": -3.800638198852539
        }
      },
      "energy": {
        "bias": 2.8161182403564453,
        "weights": {
          "0": -4.411456108093262,
          "1": -2.6151328086853027,
          "2": -1.4360215663909912,
          "3": -2.849485158920288
        }
      },
      "tension": {
        "bias": 3.4519155025482178,
        "weights": {
          "0": 5.3498430252075195,
          "1": -2.3645095825195312,
          "2": -5.851678371429443,
          "3": -0.26313433051109314
        }
      }
    }
  ],
  "outputLookup": true,
  "inputLookup": true,
  "activation": "sigmoid",
  "trainOpts": {
    "iterations": 20000,
    "errorThresh": 0.005,
    "log": false,
    "logPeriod": 10,
    "learningRate": 0.3,
    "momentum": 0.1,
    "callbackPeriod": 10,
    "beta1": 0.9,
    "beta2": 0.999,
    "epsilon": 1e-8
  }
}
