{
  "sizes": [7, 7, 5, 4, 3],
  "layers": [
    {
      "sleep": {},
      "social": {},
      "meals": {},
      "exercise": {},
      "work": {},
      "relax": {},
      "sun": {}
    },
    {
      "0": {
        "bias": 4.584623336791992,
        "weights": {
          "sleep": 2.761657476425171,
          "social": -6.991998195648193,
          "meals": -4.608179569244385,
          "exercise": -6.259113788604736,
          "work": -9.533788681030273,
          "relax": 6.409658908843994,
          "sun": 3.1915080547332764
        }
      },
      "1": {
        "bias": 3.2606096267700195,
        "weights": {
          "sleep": 12.386115074157715,
          "social": 8.363354682922363,
          "meals": -8.3975830078125,
          "exercise": -3.260315418243408,
          "work": -14.613043785095215,
          "relax": 10.971443176269531,
          "sun": -2.761575698852539
        }
      },
      "2": {
        "bias": 9.692527770996094,
        "weights": {
          "sleep": 3.371734380722046,
          "social": 6.627330303192139,
          "meals": -7.277418613433838,
          "exercise": -5.857165813446045,
          "work": -7.082222938537598,
          "relax": -3.288039207458496,
          "sun": -9.596744537353516
        }
      },
      "3": {
        "bias": -5.567653179168701,
        "weights": {
          "sleep": 8.702311515808105,
          "social": -3.0281903743743896,
          "meals": -4.798855304718018,
          "exercise": 5.994317531585693,
          "work": -5.441381931304932,
          "relax": -1.1434475183486938,
          "sun": 0.7877197265625
        }
      },
      "4": {
        "bias": 5.25973653793335,
        "weights": {
          "sleep": 7.145335674285889,
          "social": -4.198853492736816,
          "meals": -15.9281644821167,
          "exercise": -3.0290286540985107,
          "work": -0.6665321588516235,
          "relax": 4.008464813232422,
          "sun": -5.439416408538818
        }
      },
      "5": {
        "bias": -2.192810297012329,
        "weights": {
          "sleep": 6.071478366851807,
          "social": -5.469537734985352,
          "meals": -8.298938751220703,
          "exercise": -1.773766040802002,
          "work": 3.263671636581421,
          "relax": 10.650893211364746,
          "sun": 5.089167594909668
        }
      },
      "6": {
        "bias": -5.509617328643799,
        "weights": {
          "sleep": 2.76374888420105,
          "social": 6.8497443199157715,
          "meals": 0.7105377316474915,
          "exercise": 3.018329381942749,
          "work": 5.585268497467041,
          "relax": 6.665295600891113,
          "sun": -10.152548789978027
        }
      }
    },
    {
      "0": {
        "bias": 6.188866138458252,
        "weights": {
          "0": 5.8831682205200195,
          "1": -6.896617889404297,
          "2": 15.540351867675781,
          "3": 3.1940267086029053,
          "4": 2.3520374298095703,
          "5": -6.301841735839844,
          "6": -2.1324822902679443
        }
      },
      "1": {
        "bias": 0.8789717555046082,
        "weights": {
          "0": 7.03352165222168,
          "1": -3.7710154056549072,
          "2": 3.4802608489990234,
          "3": 1.7425456047058105,
          "4": 5.365121841430664,
          "5": -3.2097318172454834,
          "6": -3.2674520015716553
        }
      },
      "2": {
        "bias": -2.2785537242889404,
        "weights": {
          "0": -2.3090693950653076,
          "1": 15.841148376464844,
          "2": 0.31457704305648804,
          "3": 4.571520805358887,
          "4": -9.714864730834961,
          "5": -5.939741611480713,
          "6": -7.347614765167236
        }
      },
      "3": {
        "bias": -1.561941146850586,
        "weights": {
          "0": 4.836851596832275,
          "1": -6.67156982421875,
          "2": 9.214933395385742,
          "3": 4.6125288009643555,
          "4": -8.662341117858887,
          "5": 0.13837289810180664,
          "6": 3.0443334579467773
        }
      },
      "4": {
        "bias": -1.3222324848175049,
        "weights": {
          "0": 12.755666732788086,
          "1": 2.246084213256836,
          "2": -1.6681091785430908,
          "3": 2.2179367542266846,
          "4": -3.7032036781311035,
          "5": -8.555959701538086,
          "6": 3.958019733428955
        }
      }
    },
    {
      "0": {
        "bias": 10.310791969299316,
        "weights": {
          "0": -6.824832916259766,
          "1": -2.02911114692688,
          "2": -10.557127952575684,
          "3": -2.4798269271850586,
          "4": -9.265523910522461
        }
      },
      "1": {
        "bias": 0.8303349018096924,
        "weights": {
          "0": 5.615725040435791,
          "1": -10.31673526763916,
          "2": 1.3698090314865112,
          "3": 1.235361933708191,
          "4": -11.305397033691406
        }
      },
      "2": {
        "bias": 6.392480373382568,
        "weights": {
          "0": 1.477842092514038,
          "1": -6.192481994628906,
          "2": -9.323089599609375,
          "3": -16.09804916381836,
          "4": 5.204052448272705
        }
      },
      "3": {
        "bias": 1.462161898612976,
        "weights": {
          "0": -5.269735336303711,
          "1": 4.003210067749023,
          "2": -1.8170881271362305,
          "3": 4.182561874389648,
          "4": -1.9528727531433105
        }
      }
    },
    {
      "pleasant": {
        "bias": -1.8062450885772705,
        "weights": {
          "0": -0.21244800090789795,
          "1": 1.8845659494400024,
          "2": 2.234527111053467,
          "3": 2.2573511600494385
        }
      },
      "energy": {
        "bias": -4.069631099700928,
        "weights": {
          "0": -3.957533597946167,
          "1": 4.891251564025879,
          "2": 3.973116636276245,
          "3": 3.4314911365509033
        }
      },
      "tension": {
        "bias": 2.0652263164520264,
        "weights": {
          "0": 1.7156577110290527,
          "1": 0.8128195405006409,
          "2": 2.3793346881866455,
          "3": -8.683725357055664
        }
      }
    }
  ],
  "outputLookup": true,
  "inputLookup": true,
  "activation": "sigmoid",
  "trainOpts": {
    "iterations": 20000,
    "errorThresh": 0.005,
    "log": false,
    "logPeriod": 10,
    "learningRate": 0.3,
    "momentum": 0.1,
    "callbackPeriod": 10,
    "beta1": 0.9,
    "beta2": 0.999,
    "epsilon": 1e-8
  }
}
