{
  "sizes": [7, 7, 5, 4, 3],
  "layers": [
    {
      "sleep": {},
      "social": {},
      "meals": {},
      "exercise": {},
      "work": {},
      "relax": {},
      "sun": {}
    },
    {
      "0": {
        "bias": 1.0707471370697021,
        "weights": {
          "sleep": 0.0014080216642469168,
          "social": 1.4883962869644165,
          "meals": -0.8959063291549683,
          "exercise": 0.07104621082544327,
          "work": -0.8956331014633179,
          "relax": 4.669617176055908,
          "sun": -3.960005283355713
        }
      },
      "1": {
        "bias": -3.1301615238189697,
        "weights": {
          "sleep": 0.5239788889884949,
          "social": -1.928268551826477,
          "meals": -8.588997840881348,
          "exercise": 3.1046838760375977,
          "work": 0.0939428061246872,
          "relax": 8.859919548034668,
          "sun": 3.4345216751098633
        }
      },
      "2": {
        "bias": -2.328953504562378,
        "weights": {
          "sleep": 1.32699716091156,
          "social": -0.42108988761901855,
          "meals": -3.5329315662384033,
          "exercise": -1.2691000699996948,
          "work": 5.9729814529418945,
          "relax": 3.9885740280151367,
          "sun": 2.565809488296509
        }
      },
      "3": {
        "bias": -2.0809409618377686,
        "weights": {
          "sleep": -1.8716702461242676,
          "social": -7.28398323059082,
          "meals": 4.510381698608398,
          "exercise": 0.17447803914546967,
          "work": 4.501092910766602,
          "relax": -2.55656361579895,
          "sun": 2.3526978492736816
        }
      },
      "4": {
        "bias": -1.7932943105697632,
        "weights": {
          "sleep": 0.880532443523407,
          "social": -9.555096626281738,
          "meals": -0.410940021276474,
          "exercise": 4.279979705810547,
          "work": -2.397317409515381,
          "relax": 3.3253731727600098,
          "sun": 6.201234340667725
        }
      },
      "5": {
        "bias": -3.9070334434509277,
        "weights": {
          "sleep": 2.8845572471618652,
          "social": -1.0841468572616577,
          "meals": -4.183111667633057,
          "exercise": 1.432211995124817,
          "work": 3.984604835510254,
          "relax": 5.6689066886901855,
          "sun": -2.232964277267456
        }
      },
      "6": {
        "bias": -3.049445152282715,
        "weights": {
          "sleep": 0.025981688871979713,
          "social": -1.2715753316879272,
          "meals": 0.42537739872932434,
          "exercise": 0.16132399439811707,
          "work": 7.6924872398376465,
          "relax": 0.8790776133537292,
          "sun": -3.342280149459839
        }
      }
    },
    {
      "0": {
        "bias": -0.8287126421928406,
        "weights": {
          "0": -0.4280219078063965,
          "1": -2.529299736022949,
          "2": 1.886476755142212,
          "3": -0.9557941555976868,
          "4": 1.836677074432373,
          "5": 4.434998989105225,
          "6": -3.3346874713897705
        }
      },
      "1": {
        "bias": 0.03575002774596214,
        "weights": {
          "0": -2.4599719047546387,
          "1": -4.610686302185059,
          "2": 0.8708981871604919,
          "3": -2.9497761726379395,
          "4": 2.8197638988494873,
          "5": 3.34847092628479,
          "6": 0.38783323764801025
        }
      },
      "2": {
        "bias": -4.803371906280518,
        "weights": {
          "0": -4.1318135261535645,
          "1": 1.4530867338180542,
          "2": 2.5364480018615723,
          "3": -3.0720484256744385,
          "4": 3.2215967178344727,
          "5": 2.9298899173736572,
          "6": 5.31655216217041
        }
      },
      "3": {
        "bias": 1.6278740167617798,
        "weights": {
          "0": -0.5308064222335815,
          "1": -4.547732353210449,
          "2": 1.766516923904419,
          "3": -3.4724745750427246,
          "4": 4.020530700683594,
          "5": 0.642599880695343,
          "6": -0.24919447302818298
        }
      },
      "4": {
        "bias": -0.7356384992599487,
        "weights": {
          "0": -1.0926400423049927,
          "1": -2.34521746635437,
          "2": -3.0130984783172607,
          "3": -1.1259161233901978,
          "4": 5.168696880340576,
          "5": 2.245889663696289,
          "6": 0.06496962904930115
        }
      }
    },
    {
      "0": {
        "bias": 1.3259695768356323,
        "weights": {
          "0": 1.7560633420944214,
          "1": 0.07294448465108871,
          "2": -6.67703104019165,
          "3": -4.807626247406006,
          "4": 3.3178043365478516
        }
      },
      "1": {
        "bias": 0.5169922113418579,
        "weights": {
          "0": -0.5580746531486511,
          "1": -2.455338954925537,
          "2": 1.898921251296997,
          "3": -5.6672749519348145,
          "4": -3.293328046798706
        }
      },
      "2": {
        "bias": 4.219158172607422,
        "weights": {
          "0": -2.6562068462371826,
          "1": -5.0757927894592285,
          "2": -1.0861921310424805,
          "3": -0.024402189999818802,
          "4": -2.677391767501831
        }
      },
      "3": {
        "bias": 1.261110544204712,
        "weights": {
          "0": -2.5230276584625244,
          "1": 0.14520540833473206,
          "2": -1.7937015295028687,
          "3": -0.5004103183746338,
          "4": 2.971714973449707
        }
      }
    },
    {
      "pleasant": {
        "bias": 2.4881844520568848,
        "weights": {
          "0": -2.565365791320801,
          "1": 3.7274551391601562,
          "2": -1.0325111150741577,
          "3": -3.8167216777801514
        }
      },
      "energy": {
        "bias": 2.770364761352539,
        "weights": {
          "0": -4.380830764770508,
          "1": -2.608642816543579,
          "2": -1.4668235778808594,
          "3": -2.877838134765625
        }
      },
      "tension": {
        "bias": 3.4691073894500732,
        "weights": {
          "0": 5.309719562530518,
          "1": -2.372368335723877,
          "2": -5.8328046798706055,
          "3": -0.24410860240459442
        }
      }
    }
  ],
  "outputLookup": true,
  "inputLookup": true,
  "activation": "sigmoid",
  "trainOpts": {
    "iterations": 20000,
    "errorThresh": 0.005,
    "log": false,
    "logPeriod": 10,
    "learningRate": 0.3,
    "momentum": 0.1,
    "callbackPeriod": 10,
    "beta1": 0.9,
    "beta2": 0.999,
    "epsilon": 1e-8
  }
}
