{
  "sizes": [7, 7, 5, 4, 3],
  "layers": [
    {
      "sleep": {},
      "social": {},
      "meals": {},
      "exercise": {},
      "work": {},
      "relax": {},
      "sun": {}
    },
    {
      "0": {
        "bias": 0.2679204046726227,
        "weights": {
          "sleep": 0.18785688281059265,
          "social": 1.2287945747375488,
          "meals": -1.3877373933792114,
          "exercise": -0.4278053343296051,
          "work": -1.033623456954956,
          "relax": 4.403366565704346,
          "sun": -4.262143135070801
        }
      },
      "1": {
        "bias": -2.9705936908721924,
        "weights": {
          "sleep": 0.7369340062141418,
          "social": -1.9173688888549805,
          "meals": -8.574336051940918,
          "exercise": 3.123680353164673,
          "work": 0.06328772753477097,
          "relax": 8.756035804748535,
          "sun": 3.334014654159546
        }
      },
      "2": {
        "bias": -1.681397795677185,
        "weights": {
          "sleep": 1.524371862411499,
          "social": 0.013414793647825718,
          "meals": -2.9489376544952393,
          "exercise": -0.7644004225730896,
          "work": 6.29548454284668,
          "relax": 4.345914840698242,
          "sun": 2.9506444931030273
        }
      },
      "3": {
        "bias": -2.5685877799987793,
        "weights": {
          "sleep": -1.9335325956344604,
          "social": -7.4912848472595215,
          "meals": 4.195193290710449,
          "exercise": -0.1165524497628212,
          "work": 4.280325889587402,
          "relax": -2.789693832397461,
          "sun": 2.043116807937622
        }
      },
      "4": {
        "bias": -1.9165256023406982,
        "weights": {
          "sleep": 0.560627818107605,
          "social": -9.49581527709961,
          "meals": -0.4159168004989624,
          "exercise": 4.511485576629639,
          "work": -2.433805227279663,
          "relax": 3.474112033843994,
          "sun": 6.25521183013916
        }
      },
      "5": {
        "bias": -4.044846534729004,
        "weights": {
          "sleep": 2.5980331897735596,
          "social": -1.153603434562683,
          "meals": -4.2113938331604,
          "exercise": 1.6473369598388672,
          "work": 3.959857702255249,
          "relax": 5.6998090744018555,
          "sun": -2.2866015434265137
        }
      },
      "6": {
        "bias": -2.9798038005828857,
        "weights": {
          "sleep": -0.01854867674410343,
          "social": -1.4387259483337402,
          "meals": 0.28211095929145813,
          "exercise": 0.37046313285827637,
          "work": 7.5699286460876465,
          "relax": 0.8073259592056274,
          "sun": -3.4286959171295166
        }
      }
    },
    {
      "0": {
        "bias": -0.9178733825683594,
        "weights": {
          "0": -0.6093254685401917,
          "1": -2.6064345836639404,
          "2": 2.267512321472168,
          "3": -0.8654056787490845,
          "4": 1.7294937372207642,
          "5": 4.38583517074585,
          "6": -3.1687910556793213
        }
      },
      "1": {
        "bias": 0.7852506637573242,
        "weights": {
          "0": -2.098933458328247,
          "1": -4.29633903503418,
          "2": 1.296035647392273,
          "3": -2.716218948364258,
          "4": 3.182406187057495,
          "5": 3.375692844390869,
          "6": 0.5231834053993225
        }
      },
      "2": {
        "bias": -4.364002704620361,
        "weights": {
          "0": -3.771836280822754,
          "1": 1.6805752515792847,
          "2": 2.491440534591675,
          "3": -2.945845603942871,
          "4": 3.7951927185058594,
          "5": 2.945183038711548,
          "6": 5.3935546875
        }
      },
      "3": {
        "bias": 1.7860743999481201,
        "weights": {
          "0": -0.48979827761650085,
          "1": -4.20826530456543,
          "2": 1.9316707849502563,
          "3": -3.435734987258911,
          "4": 4.406533718109131,
          "5": 0.7204905152320862,
          "6": -0.15930069983005524
        }
      },
      "4": {
        "bias": -0.7104536294937134,
        "weights": {
          "0": -1.0722113847732544,
          "1": -2.4463112354278564,
          "2": -2.911306381225586,
          "3": -1.1821051836013794,
          "4": 4.716722011566162,
          "5": 2.295924186706543,
          "6": -0.04423697665333748
        }
      }
    },
    {
      "0": {
        "bias": 0.7288290858268738,
        "weights": {
          "0": 1.5754395723342896,
          "1": -0.06059050187468529,
          "2": -6.762559413909912,
          "3": -5.477893352508545,
          "4": 2.349386215209961
        }
      },
      "1": {
        "bias": 0.36218518018722534,
        "weights": {
          "0": -0.6288993954658508,
          "1": -2.491910219192505,
          "2": 1.7793684005737305,
          "3": -5.796881198883057,
          "4": -3.287327766418457
        }
      },
      "2": {
        "bias": 3.518972635269165,
        "weights": {
          "0": -2.8914294242858887,
          "1": -5.258989334106445,
          "2": -1.307522177696228,
          "3": -0.7355701327323914,
          "4": -2.9020938873291016
        }
      },
      "3": {
        "bias": 2.5372886657714844,
        "weights": {
          "0": -1.8344866037368774,
          "1": 0.5064793825149536,
          "2": -1.5267022848129272,
          "3": 0.6179710030555725,
          "4": 3.0016186237335205
        }
      }
    },
    {
      "pleasant": {
        "bias": 1.9088433980941772,
        "weights": {
          "0": -2.692556381225586,
          "1": 3.691061019897461,
          "2": -2.348478078842163,
          "3": -4.20857048034668
        }
      },
      "energy": {
        "bias": 2.2946252822875977,
        "weights": {
          "0": -4.208187103271484,
          "1": -2.5994272232055664,
          "2": -1.5435967445373535,
          "3": -2.5236897468566895
        }
      },
      "tension": {
        "bias": 2.8836281299591064,
        "weights": {
          "0": 5.195901870727539,
          "1": -2.3644821643829346,
          "2": -5.715423107147217,
          "3": -0.9044436812400818
        }
      }
    }
  ],
  "outputLookup": true,
  "inputLookup": true,
  "activation": "sigmoid",
  "trainOpts": {
    "iterations": 20000,
    "errorThresh": 0.005,
    "log": false,
    "logPeriod": 10,
    "learningRate": 0.3,
    "momentum": 0.1,
    "callbackPeriod": 10,
    "beta1": 0.9,
    "beta2": 0.999,
    "epsilon": 1e-8
  }
}
